digraph Tree {
node [shape=box, style="filled, rounded", color="black", fontname="helvetica"] ;
edge [fontname="helvetica"] ;
0 [label="SoTA <= 5.5\ngini = 0.652\nsamples = 569\nvalue = [222, 133, 214]\nclass = L", fillcolor="#fefcfb"] ;
1 [label="SoT <= 5.5\ngini = 0.641\nsamples = 403\nvalue = [114, 102, 187]\nclass = W", fillcolor="#dfcdf8"] ;
0 -> 1 [labeldistance=2.5, labelangle=45, headlabel="True"] ;
2 [label="SoT% <= 21.25\ngini = 0.661\nsamples = 290\nvalue = [101, 80, 109]\nclass = W", fillcolor="#faf7fe"] ;
1 -> 2 ;
3 [label="Saves <= 3.5\ngini = 0.619\nsamples = 82\nvalue = [41, 25, 16]\nclass = L", fillcolor="#f8dcc7"] ;
2 -> 3 ;
4 [label="TO <= 1.5\ngini = 0.592\nsamples = 72\nvalue = [40, 17, 15]\nclass = L", fillcolor="#f4caac"] ;
3 -> 4 ;
5 [label="Succ <= 3.5\ngini = 0.486\nsamples = 50\nvalue = [34, 7, 9]\nclass = L", fillcolor="#efb286"] ;
4 -> 5 ;
6 [label="Mid 3rd <= 7.0\ngini = 0.48\nsamples = 5\nvalue = [0, 2, 3]\nclass = W", fillcolor="#d5bdf6"] ;
5 -> 6 ;
7 [label="gini = 0.0\nsamples = 2\nvalue = [0, 2, 0]\nclass = D", fillcolor="#39e581"] ;
6 -> 7 ;
8 [label="gini = 0.0\nsamples = 3\nvalue = [0, 0, 3]\nclass = W", fillcolor="#8139e5"] ;
6 -> 8 ;
9 [label="xA <= 1.05\ngini = 0.399\nsamples = 45\nvalue = [34, 5, 6]\nclass = L", fillcolor="#eca571"] ;
5 -> 9 ;
10 [label="gini = 0.179\nsamples = 31\nvalue = [28, 1, 2]\nclass = L", fillcolor="#e88e4d"] ;
9 -> 10 ;
11 [label="gini = 0.653\nsamples = 14\nvalue = [6, 4, 4]\nclass = L", fillcolor="#fae6d7"] ;
9 -> 11 ;
12 [label="CrsPA <= 1.5\ngini = 0.645\nsamples = 22\nvalue = [6, 10, 6]\nclass = D", fillcolor="#cef8e0"] ;
4 -> 12 ;
13 [label="Thr <= 5.0\ngini = 0.497\nsamples = 13\nvalue = [0, 7, 6]\nclass = D", fillcolor="#e3fbed"] ;
12 -> 13 ;
14 [label="gini = 0.375\nsamples = 8\nvalue = [0, 2, 6]\nclass = W", fillcolor="#ab7bee"] ;
13 -> 14 ;
15 [label="gini = 0.0\nsamples = 5\nvalue = [0, 5, 0]\nclass = D", fillcolor="#39e581"] ;
13 -> 15 ;
16 [label="Stp% <= 6.25\ngini = 0.444\nsamples = 9\nvalue = [6, 3, 0]\nclass = L", fillcolor="#f2c09c"] ;
12 -> 16 ;
17 [label="gini = 0.375\nsamples = 4\nvalue = [1, 3, 0]\nclass = D", fillcolor="#7beeab"] ;
16 -> 17 ;
18 [label="gini = 0.0\nsamples = 5\nvalue = [5, 0, 0]\nclass = L", fillcolor="#e58139"] ;
16 -> 18 ;
19 [label="KP <= 3.5\ngini = 0.34\nsamples = 10\nvalue = [1, 8, 1]\nclass = D", fillcolor="#65eb9d"] ;
3 -> 19 ;
20 [label="Launch% <= 45.95\ngini = 0.5\nsamples = 2\nvalue = [1, 0, 1]\nclass = L", fillcolor="#ffffff"] ;
19 -> 20 ;
21 [label="gini = 0.0\nsamples = 1\nvalue = [1, 0, 0]\nclass = L", fillcolor="#e58139"] ;
20 -> 21 ;
22 [label="gini = 0.0\nsamples = 1\nvalue = [0, 0, 1]\nclass = W", fillcolor="#8139e5"] ;
20 -> 22 ;
23 [label="gini = 0.0\nsamples = 8\nvalue = [0, 8, 0]\nclass = D", fillcolor="#39e581"] ;
19 -> 23 ;
24 [label="AvgDist <= 25.8\ngini = 0.647\nsamples = 208\nvalue = [60, 55, 93]\nclass = W", fillcolor="#e3d3f9"] ;
2 -> 24 ;
25 [label="CPA <= 1.5\ngini = 0.638\nsamples = 195\nvalue = [49, 54, 92]\nclass = W", fillcolor="#ddcaf8"] ;
24 -> 25 ;
26 [label="PrgR <= 22.5\ngini = 0.526\nsamples = 21\nvalue = [6, 13, 2]\nclass = D", fillcolor="#a3f3c4"] ;
25 -> 26 ;
27 [label="Tkld <= 3.5\ngini = 0.531\nsamples = 8\nvalue = [5, 1, 2]\nclass = L", fillcolor="#f2c09c"] ;
26 -> 27 ;
28 [label="gini = 0.444\nsamples = 3\nvalue = [0, 1, 2]\nclass = W", fillcolor="#c09cf2"] ;
27 -> 28 ;
29 [label="gini = 0.0\nsamples = 5\nvalue = [5, 0, 0]\nclass = L", fillcolor="#e58139"] ;
27 -> 29 ;
30 [label="Def <= 1.0\ngini = 0.142\nsamples = 13\nvalue = [1, 12, 0]\nclass = D", fillcolor="#49e78c"] ;
26 -> 30 ;
31 [label="gini = 0.0\nsamples = 12\nvalue = [0, 12, 0]\nclass = D", fillcolor="#39e581"] ;
30 -> 31 ;
32 [label="gini = 0.0\nsamples = 1\nvalue = [1, 0, 0]\nclass = L", fillcolor="#e58139"] ;
30 -> 32 ;
33 [label="Tkld% <= 58.55\ngini = 0.616\nsamples = 174\nvalue = [43, 41, 90]\nclass = W", fillcolor="#d2b8f6"] ;
25 -> 33 ;
34 [label="Crs <= 30.0\ngini = 0.58\nsamples = 148\nvalue = [32, 31, 85]\nclass = W", fillcolor="#c5a5f3"] ;
33 -> 34 ;
35 [label="gini = 0.567\nsamples = 144\nvalue = [32, 27, 85]\nclass = W", fillcolor="#c3a1f3"] ;
34 -> 35 ;
36 [label="gini = 0.0\nsamples = 4\nvalue = [0, 4, 0]\nclass = D", fillcolor="#39e581"] ;
34 -> 36 ;
37 [label="CrsPA <= 2.5\ngini = 0.636\nsamples = 26\nvalue = [11, 10, 5]\nclass = L", fillcolor="#fdf7f3"] ;
33 -> 37 ;
38 [label="gini = 0.609\nsamples = 19\nvalue = [5, 10, 4]\nclass = D", fillcolor="#b8f6d2"] ;
37 -> 38 ;
39 [label="gini = 0.245\nsamples = 7\nvalue = [6, 0, 1]\nclass = L", fillcolor="#e9965a"] ;
37 -> 39 ;
40 [label="Att <= 12.5\ngini = 0.272\nsamples = 13\nvalue = [11, 1, 1]\nclass = L", fillcolor="#e9965a"] ;
24 -> 40 ;
41 [label="Fld <= 1.5\ngini = 0.5\nsamples = 2\nvalue = [0, 1, 1]\nclass = D", fillcolor="#ffffff"] ;
40 -> 41 ;
42 [label="gini = 0.0\nsamples = 1\nvalue = [0, 1, 0]\nclass = D", fillcolor="#39e581"] ;
41 -> 42 ;
43 [label="gini = 0.0\nsamples = 1\nvalue = [0, 0, 1]\nclass = W", fillcolor="#8139e5"] ;
41 -> 43 ;
44 [label="gini = 0.0\nsamples = 11\nvalue = [11, 0, 0]\nclass = L", fillcolor="#e58139"] ;
40 -> 44 ;
45 [label="Crs <= 21.5\ngini = 0.472\nsamples = 113\nvalue = [13, 22, 78]\nclass = W", fillcolor="#b185ef"] ;
1 -> 45 ;
46 [label="PrgDist <= 2166.5\ngini = 0.29\nsamples = 72\nvalue = [4, 8, 60]\nclass = W", fillcolor="#995eea"] ;
45 -> 46 ;
47 [label="Def 3rd <= 6.5\ngini = 0.537\nsamples = 18\nvalue = [1, 7, 10]\nclass = W", fillcolor="#ddc9f8"] ;
46 -> 47 ;
48 [label="gini = 0.0\nsamples = 5\nvalue = [0, 5, 0]\nclass = D", fillcolor="#39e581"] ;
47 -> 48 ;
49 [label="Succ <= 10.5\ngini = 0.379\nsamples = 13\nvalue = [1, 2, 10]\nclass = W", fillcolor="#a36fec"] ;
47 -> 49 ;
50 [label="Dist <= 19.35\ngini = 0.165\nsamples = 11\nvalue = [1, 0, 10]\nclass = W", fillcolor="#8e4de8"] ;
49 -> 50 ;
51 [label="gini = 0.0\nsamples = 10\nvalue = [0, 0, 10]\nclass = W", fillcolor="#8139e5"] ;
50 -> 51 ;
52 [label="gini = 0.0\nsamples = 1\nvalue = [1, 0, 0]\nclass = L", fillcolor="#e58139"] ;
50 -> 52 ;
53 [label="gini = 0.0\nsamples = 2\nvalue = [0, 2, 0]\nclass = D", fillcolor="#39e581"] ;
49 -> 53 ;
54 [label="AvgLen <= 17.5\ngini = 0.139\nsamples = 54\nvalue = [3, 1, 50]\nclass = W", fillcolor="#8b49e7"] ;
46 -> 54 ;
55 [label="gini = 0.0\nsamples = 2\nvalue = [2, 0, 0]\nclass = L", fillcolor="#e58139"] ;
54 -> 55 ;
56 [label="Poss <= 74.0\ngini = 0.075\nsamples = 52\nvalue = [1, 1, 50]\nclass = W", fillcolor="#8641e6"] ;
54 -> 56 ;
57 [label="Succ <= 23.0\ngini = 0.038\nsamples = 51\nvalue = [1, 0, 50]\nclass = W", fillcolor="#843de6"] ;
56 -> 57 ;
58 [label="gini = 0.0\nsamples = 50\nvalue = [0, 0, 50]\nclass = W", fillcolor="#8139e5"] ;
57 -> 58 ;
59 [label="gini = 0.0\nsamples = 1\nvalue = [1, 0, 0]\nclass = L", fillcolor="#e58139"] ;
57 -> 59 ;
60 [label="gini = 0.0\nsamples = 1\nvalue = [0, 1, 0]\nclass = D", fillcolor="#39e581"] ;
56 -> 60 ;
61 [label="Venue <= 0.5\ngini = 0.642\nsamples = 41\nvalue = [9, 14, 18]\nclass = W", fillcolor="#ece2fb"] ;
45 -> 61 ;
62 [label="Succ <= 6.5\ngini = 0.571\nsamples = 29\nvalue = [6, 6, 17]\nclass = W", fillcolor="#c3a0f3"] ;
61 -> 62 ;
63 [label="Att Pen <= 27.5\ngini = 0.444\nsamples = 6\nvalue = [2, 4, 0]\nclass = D", fillcolor="#9cf2c0"] ;
62 -> 63 ;
64 [label="gini = 0.0\nsamples = 2\nvalue = [2, 0, 0]\nclass = L", fillcolor="#e58139"] ;
63 -> 64 ;
65 [label="gini = 0.0\nsamples = 4\nvalue = [0, 4, 0]\nclass = D", fillcolor="#39e581"] ;
63 -> 65 ;
66 [label="Tkl+Int <= 26.0\ngini = 0.416\nsamples = 23\nvalue = [4, 2, 17]\nclass = W", fillcolor="#a978ed"] ;
62 -> 66 ;
67 [label="PK <= 0.5\ngini = 0.208\nsamples = 17\nvalue = [0, 2, 15]\nclass = W", fillcolor="#9253e8"] ;
66 -> 67 ;
68 [label="gini = 0.117\nsamples = 16\nvalue = [0, 1, 15]\nclass = W", fillcolor="#8946e7"] ;
67 -> 68 ;
69 [label="gini = 0.0\nsamples = 1\nvalue = [0, 1, 0]\nclass = D", fillcolor="#39e581"] ;
67 -> 69 ;
70 [label="Stp% <= 7.3\ngini = 0.444\nsamples = 6\nvalue = [4, 0, 2]\nclass = L", fillcolor="#f2c09c"] ;
66 -> 70 ;
71 [label="gini = 0.0\nsamples = 4\nvalue = [4, 0, 0]\nclass = L", fillcolor="#e58139"] ;
70 -> 71 ;
72 [label="gini = 0.0\nsamples = 2\nvalue = [0, 0, 2]\nclass = W", fillcolor="#8139e5"] ;
70 -> 72 ;
73 [label="TklW <= 13.5\ngini = 0.486\nsamples = 12\nvalue = [3, 8, 1]\nclass = D", fillcolor="#91f1b9"] ;
61 -> 73 ;
74 [label="Sh <= 0.5\ngini = 0.34\nsamples = 10\nvalue = [1, 8, 1]\nclass = D", fillcolor="#65eb9d"] ;
73 -> 74 ;
75 [label="Mid 3rd <= 2.0\ngini = 0.5\nsamples = 2\nvalue = [1, 0, 1]\nclass = L", fillcolor="#ffffff"] ;
74 -> 75 ;
76 [label="gini = 0.0\nsamples = 1\nvalue = [1, 0, 0]\nclass = L", fillcolor="#e58139"] ;
75 -> 76 ;
77 [label="gini = 0.0\nsamples = 1\nvalue = [0, 0, 1]\nclass = W", fillcolor="#8139e5"] ;
75 -> 77 ;
78 [label="gini = 0.0\nsamples = 8\nvalue = [0, 8, 0]\nclass = D", fillcolor="#39e581"] ;
74 -> 78 ;
79 [label="gini = 0.0\nsamples = 2\nvalue = [2, 0, 0]\nclass = L", fillcolor="#e58139"] ;
73 -> 79 ;
80 [label="Opp <= 18.5\ngini = 0.515\nsamples = 166\nvalue = [108, 31, 27]\nclass = L", fillcolor="#f0b78e"] ;
0 -> 80 [labeldistance=2.5, labelangle=-45, headlabel="False"] ;
81 [label="Carries <= 466.5\ngini = 0.396\nsamples = 124\nvalue = [94, 15, 15]\nclass = L", fillcolor="#eca46f"] ;
80 -> 81 ;
82 [label="Saves <= 4.5\ngini = 0.331\nsamples = 113\nvalue = [91, 8, 14]\nclass = L", fillcolor="#eb9d65"] ;
81 -> 82 ;
83 [label="Rec <= 179.0\ngini = 0.071\nsamples = 54\nvalue = [52, 2, 0]\nclass = L", fillcolor="#e68641"] ;
82 -> 83 ;
84 [label="gini = 0.0\nsamples = 1\nvalue = [0, 1, 0]\nclass = D", fillcolor="#39e581"] ;
83 -> 84 ;
85 [label="Pass <= 2.5\ngini = 0.037\nsamples = 53\nvalue = [52, 1, 0]\nclass = L", fillcolor="#e6833d"] ;
83 -> 85 ;
86 [label="gini = 0.0\nsamples = 1\nvalue = [0, 1, 0]\nclass = D", fillcolor="#39e581"] ;
85 -> 86 ;
87 [label="gini = 0.0\nsamples = 52\nvalue = [52, 0, 0]\nclass = L", fillcolor="#e58139"] ;
85 -> 87 ;
88 [label="CPA <= 5.5\ngini = 0.496\nsamples = 59\nvalue = [39, 6, 14]\nclass = L", fillcolor="#f1b991"] ;
82 -> 88 ;
89 [label="Fld.1 <= 0.5\ngini = 0.359\nsamples = 42\nvalue = [33, 5, 4]\nclass = L", fillcolor="#eba069"] ;
88 -> 89 ;
90 [label="Lost <= 14.5\ngini = 0.202\nsamples = 36\nvalue = [32, 1, 3]\nclass = L", fillcolor="#e89051"] ;
89 -> 90 ;
91 [label="gini = 0.112\nsamples = 34\nvalue = [32, 1, 1]\nclass = L", fillcolor="#e78945"] ;
90 -> 91 ;
92 [label="gini = 0.0\nsamples = 2\nvalue = [0, 0, 2]\nclass = W", fillcolor="#8139e5"] ;
90 -> 92 ;
93 [label="Def 3rd <= 11.0\ngini = 0.5\nsamples = 6\nvalue = [1, 4, 1]\nclass = D", fillcolor="#88efb3"] ;
89 -> 93 ;
94 [label="gini = 0.0\nsamples = 4\nvalue = [0, 4, 0]\nclass = D", fillcolor="#39e581"] ;
93 -> 94 ;
95 [label="gini = 0.5\nsamples = 2\nvalue = [1, 0, 1]\nclass = L", fillcolor="#ffffff"] ;
93 -> 95 ;
96 [label="Att (GK) <= 20.5\ngini = 0.526\nsamples = 17\nvalue = [6, 1, 10]\nclass = W", fillcolor="#d1b7f6"] ;
88 -> 96 ;
97 [label="Att 3rd <= 2.5\ngini = 0.32\nsamples = 5\nvalue = [4, 1, 0]\nclass = L", fillcolor="#eca06a"] ;
96 -> 97 ;
98 [label="gini = 0.0\nsamples = 4\nvalue = [4, 0, 0]\nclass = L", fillcolor="#e58139"] ;
97 -> 98 ;
99 [label="gini = 0.0\nsamples = 1\nvalue = [0, 1, 0]\nclass = D", fillcolor="#39e581"] ;
97 -> 99 ;
100 [label="CPA <= 10.5\ngini = 0.278\nsamples = 12\nvalue = [2, 0, 10]\nclass = W", fillcolor="#9a61ea"] ;
96 -> 100 ;
101 [label="gini = 0.0\nsamples = 10\nvalue = [0, 0, 10]\nclass = W", fillcolor="#8139e5"] ;
100 -> 101 ;
102 [label="gini = 0.0\nsamples = 2\nvalue = [2, 0, 0]\nclass = L", fillcolor="#e58139"] ;
100 -> 102 ;
103 [label="Live <= 640.5\ngini = 0.512\nsamples = 11\nvalue = [3, 7, 1]\nclass = D", fillcolor="#9cf2c0"] ;
81 -> 103 ;
104 [label="gini = 0.0\nsamples = 6\nvalue = [0, 6, 0]\nclass = D", fillcolor="#39e581"] ;
103 -> 104 ;
105 [label="Opp <= 7.5\ngini = 0.56\nsamples = 5\nvalue = [3, 1, 1]\nclass = L", fillcolor="#f2c09c"] ;
103 -> 105 ;
106 [label="Crs <= 22.5\ngini = 0.5\nsamples = 2\nvalue = [0, 1, 1]\nclass = D", fillcolor="#ffffff"] ;
105 -> 106 ;
107 [label="gini = 0.0\nsamples = 1\nvalue = [0, 0, 1]\nclass = W", fillcolor="#8139e5"] ;
106 -> 107 ;
108 [label="gini = 0.0\nsamples = 1\nvalue = [0, 1, 0]\nclass = D", fillcolor="#39e581"] ;
106 -> 108 ;
109 [label="gini = 0.0\nsamples = 3\nvalue = [3, 0, 0]\nclass = L", fillcolor="#e58139"] ;
105 -> 109 ;
110 [label="Cmp.2 <= 87.0\ngini = 0.662\nsamples = 42\nvalue = [14, 16, 12]\nclass = D", fillcolor="#f1fdf6"] ;
80 -> 110 ;
111 [label="Clr <= 43.5\ngini = 0.338\nsamples = 15\nvalue = [1, 12, 2]\nclass = D", fillcolor="#67eb9e"] ;
110 -> 111 ;
112 [label="gini = 0.0\nsamples = 12\nvalue = [0, 12, 0]\nclass = D", fillcolor="#39e581"] ;
111 -> 112 ;
113 [label="Saves <= 4.5\ngini = 0.444\nsamples = 3\nvalue = [1, 0, 2]\nclass = W", fillcolor="#c09cf2"] ;
111 -> 113 ;
114 [label="gini = 0.0\nsamples = 1\nvalue = [1, 0, 0]\nclass = L", fillcolor="#e58139"] ;
113 -> 114 ;
115 [label="gini = 0.0\nsamples = 2\nvalue = [0, 0, 2]\nclass = W", fillcolor="#8139e5"] ;
113 -> 115 ;
116 [label="Dist <= 17.25\ngini = 0.609\nsamples = 27\nvalue = [13, 4, 10]\nclass = L", fillcolor="#fae9dc"] ;
110 -> 116 ;
117 [label="Succ <= 10.5\ngini = 0.398\nsamples = 16\nvalue = [12, 3, 1]\nclass = L", fillcolor="#eda876"] ;
116 -> 117 ;
118 [label="PKatt <= 1.5\ngini = 0.255\nsamples = 14\nvalue = [12, 1, 1]\nclass = L", fillcolor="#e99457"] ;
117 -> 118 ;
119 [label="Succ% <= 59.15\ngini = 0.142\nsamples = 13\nvalue = [12, 1, 0]\nclass = L", fillcolor="#e78c49"] ;
118 -> 119 ;
120 [label="gini = 0.0\nsamples = 12\nvalue = [12, 0, 0]\nclass = L", fillcolor="#e58139"] ;
119 -> 120 ;
121 [label="gini = 0.0\nsamples = 1\nvalue = [0, 1, 0]\nclass = D", fillcolor="#39e581"] ;
119 -> 121 ;
122 [label="gini = 0.0\nsamples = 1\nvalue = [0, 0, 1]\nclass = W", fillcolor="#8139e5"] ;
118 -> 122 ;
123 [label="gini = 0.0\nsamples = 2\nvalue = [0, 2, 0]\nclass = D", fillcolor="#39e581"] ;
117 -> 123 ;
124 [label="Succ% <= 58.55\ngini = 0.314\nsamples = 11\nvalue = [1, 1, 9]\nclass = W", fillcolor="#9a61ea"] ;
116 -> 124 ;
125 [label="gini = 0.0\nsamples = 9\nvalue = [0, 0, 9]\nclass = W", fillcolor="#8139e5"] ;
124 -> 125 ;
126 [label="Cmp%.2 <= 86.05\ngini = 0.5\nsamples = 2\nvalue = [1, 1, 0]\nclass = L", fillcolor="#ffffff"] ;
124 -> 126 ;
127 [label="gini = 0.0\nsamples = 1\nvalue = [0, 1, 0]\nclass = D", fillcolor="#39e581"] ;
126 -> 127 ;
128 [label="gini = 0.0\nsamples = 1\nvalue = [1, 0, 0]\nclass = L", fillcolor="#e58139"] ;
126 -> 128 ;
}